<?xml version="1.0"?>
<opencv_storage>
<cascade>
  <stageType>BOOST</stageType>
  <featureType>HAAR</featureType>
  <height>24</height>
  <width>24</width>
  <stageParams>
    <boostType>GAB</boostType>
    <minHitRate>9.9900001287460327e-01</minHitRate>
    <maxFalseAlarm>4.0000000596046448e-01</maxFalseAlarm>
    <weightTrimRate>9.4999999999999996e-01</weightTrimRate>
    <maxDepth>1</maxDepth>
    <maxWeakCount>100</maxWeakCount></stageParams>
  <featureParams>
    <maxCatCount>0</maxCatCount>
    <featSize>1</featSize>
    <mode>BASIC</mode></featureParams>
  <stageNum>12</stageNum>
  <stages>
    <!-- stage 0 -->
    <_>
      <maxWeakCount>3</maxWeakCount>
      <stageThreshold>-1.6528619527816772e+00</stageThreshold>
      <weakClassifiers>
        <_>
          <internalNodes>
            0 -1 54 -1.4754606410861015e-02</internalNodes>
          <leafValues>
            -9.6868473291397095e-01 4.6226415038108826e-01</leafValues></_>
        <_>
          <internalNodes>
            0 -1 65 -6.1053682118654251e-02</internalNodes>
          <leafValues>
            -9.6454179286956787e-01 3.8056973367929459e-02</leafValues></_>
        <_>
          <internalNodes>
            0 -1 60 1.1915457434952259e-04</internalNodes>
          <leafValues>
            -7.2223412990570068e-01 3.3878466486930847e-01</leafValues></_></weakClassifiers></_>
    <!-- stage 1 -->
    <_>
      <maxWeakCount>4</maxWeakCount>
      <stageThreshold>-1.0326839685440063e+00</stageThreshold>
      <weakClassifiers>
        <_>
          <internalNodes>
            0 -1 11 -6.1196213960647583e-01</internalNodes>
          <leafValues>
            -8.6161136627197266e-01 6.8695652484893799e-01</leafValues></_>
        <_>
          <internalNodes>
            0 -1 42 -7.9806052148342133e-02</internalNodes>
          <leafValues>
            7.3207449913024902e-01 -6.0399943590164185e-01</leafValues></_>
        <_>
          <internalNodes>
            0 -1 83 -1.5798170352354646e-04</internalNodes>
          <leafValues>
            -9.0211820602416992e-01 1.8926563858985901e-01</leafValues></_>
        <_>
          <internalNodes>
            0 -1 83 1.9078323384746909e-04</internalNodes>
          <leafValues>
            2.4366115033626556e-01 -8.8264667987823486e-01</leafValues></_></weakClassifiers></_>
    <!-- stage 2 -->
    <_>
      <maxWeakCount>8</maxWeakCount>
      <stageThreshold>-1.8984413146972656e+00</stageThreshold>
      <weakClassifiers>
        <_>
          <internalNodes>
            0 -1 22 5.7303157518617809e-05</internalNodes>
          <leafValues>
            -8.1818181276321411e-01 1.</leafValues></_>
        <_>
          <internalNodes>
            0 -1 13 -9.8725453019142151e-02</internalNodes>
          <leafValues>
            4.1293835639953613e-01 -7.9845088720321655e-01</leafValues></_>
        <_>
          <internalNodes>
            0 -1 43 -1.0687405616044998e-01</internalNodes>
          <leafValues>
            -4.1034960746765137e-01 7.3249202966690063e-01</leafValues></_>
        <_>
          <internalNodes>
            0 -1 3 -7.5456043705344200e-03</internalNodes>
          <leafValues>
            6.2831473350524902e-01 -2.4386905133724213e-01</leafValues></_>
        <_>
          <internalNodes>
            0 -1 20 -2.0908232545480132e-04</internalNodes>
          <leafValues>
            -7.7561169862747192e-01 2.5862386822700500e-01</leafValues></_>
        <_>
          <internalNodes>
            0 -1 0 -4.7322604805231094e-03</internalNodes>
          <leafValues>
            6.3334071636199951e-01 -2.5579935312271118e-01</leafValues></_>
        <_>
          <internalNodes>
            0 -1 50 8.0577004700899124e-03</internalNodes>
          <leafValues>
            -2.9392367601394653e-01 4.9105089902877808e-01</leafValues></_>
        <_>
          <internalNodes>
            0 -1 68 -1.0703887045383453e-01</internalNodes>
          <leafValues>
            9.0411674976348877e-01 -2.2563077509403229e-01</leafValues></_></weakClassifiers></_>
    <!-- stage 3 -->
    <_>
      <maxWeakCount>3</maxWeakCount>
      <stageThreshold>-7.9901796579360962e-01</stageThreshold>
      <weakClassifiers>
        <_>
          <internalNodes>
            0 -1 22 5.7303157518617809e-05</internalNodes>
          <leafValues>
            -8.1818181276321411e-01 1.</leafValues></_>
        <_>
          <internalNodes>
            0 -1 67 4.6745337545871735e-02</internalNodes>
          <leafValues>
            -8.6810398101806641e-01 5.6131887435913086e-01</leafValues></_>
        <_>
          <internalNodes>
            0 -1 41 8.4764864295721054e-03</internalNodes>
          <leafValues>
            -3.5646992921829224e-01 8.8726782798767090e-01</leafValues></_></weakClassifiers></_>
    <!-- stage 4 -->
    <_>
      <maxWeakCount>7</maxWeakCount>
      <stageThreshold>-1.6935586929321289e+00</stageThreshold>
      <weakClassifiers>
        <_>
          <internalNodes>
            0 -1 79 -1.0703029111027718e-03</internalNodes>
          <leafValues>
            -8.2815355062484741e-01 1.</leafValues></_>
        <_>
          <internalNodes>
            0 -1 27 -8.9054191485047340e-03</internalNodes>
          <leafValues>
            2.5730592012405396e-01 -8.6774533987045288e-01</leafValues></_>
        <_>
          <internalNodes>
            0 -1 47 -3.9528008550405502e-02</internalNodes>
          <leafValues>
            -9.2419338226318359e-01 2.8268873691558838e-01</leafValues></_>
        <_>
          <internalNodes>
            0 -1 64 -1.5105038881301880e-01</internalNodes>
          <leafValues>
            -3.3110731840133667e-01 6.4948391914367676e-01</leafValues></_>
        <_>
          <internalNodes>
            0 -1 46 1.1802826076745987e-02</internalNodes>
          <leafValues>
            2.4214045703411102e-01 -8.7263506650924683e-01</leafValues></_>
        <_>
          <internalNodes>
            0 -1 76 6.6030574962496758e-03</internalNodes>
          <leafValues>
            -3.8876697421073914e-01 4.4381794333457947e-01</leafValues></_>
        <_>
          <internalNodes>
            0 -1 87 -1.0896732419496402e-04</internalNodes>
          <leafValues>
            -7.8952735662460327e-01 2.7921620011329651e-01</leafValues></_></weakClassifiers></_>
    <!-- stage 5 -->
    <_>
      <maxWeakCount>8</maxWeakCount>
      <stageThreshold>-1.8878717422485352e+00</stageThreshold>
      <weakClassifiers>
        <_>
          <internalNodes>
            0 -1 16 1.3007067143917084e-02</internalNodes>
          <leafValues>
            -8.1118237972259521e-01 6.9620251655578613e-01</leafValues></_>
        <_>
          <internalNodes>
            0 -1 7 -8.2308202981948853e-03</internalNodes>
          <leafValues>
            3.6643353104591370e-01 -5.4325544834136963e-01</leafValues></_>
        <_>
          <internalNodes>
            0 -1 85 6.0995324747636914e-04</internalNodes>
          <leafValues>
            1.6950653493404388e-01 -8.2115828990936279e-01</leafValues></_>
        <_>
          <internalNodes>
            0 -1 52 1.2033405073452741e-04</internalNodes>
          <leafValues>
            1.5491271018981934e-01 -7.4615275859832764e-01</leafValues></_>
        <_>
          <internalNodes>
            0 -1 26 -6.5902136266231537e-03</internalNodes>
          <leafValues>
            -7.6347398757934570e-01 1.5824683010578156e-01</leafValues></_>
        <_>
          <internalNodes>
            0 -1 19 1.4742440544068813e-03</internalNodes>
          <leafValues>
            1.7150168120861053e-01 -7.8890216350555420e-01</leafValues></_>
        <_>
          <internalNodes>
            0 -1 21 -1.8666548421606421e-03</internalNodes>
          <leafValues>
            -9.2334914207458496e-01 1.6546754539012909e-01</leafValues></_>
        <_>
          <internalNodes>
            0 -1 55 6.2617484945803881e-04</internalNodes>
          <leafValues>
            -4.3134838342666626e-01 3.4249958395957947e-01</leafValues></_></weakClassifiers></_>
    <!-- stage 6 -->
    <_>
      <maxWeakCount>8</maxWeakCount>
      <stageThreshold>-1.4362975358963013e+00</stageThreshold>
      <weakClassifiers>
        <_>
          <internalNodes>
            0 -1 82 -4.8125609755516052e-03</internalNodes>
          <leafValues>
            -8.2250684499740601e-01 8.9610391855239868e-01</leafValues></_>
        <_>
          <internalNodes>
            0 -1 1 -6.1633368022739887e-03</internalNodes>
          <leafValues>
            5.3051710128784180e-01 -6.2789088487625122e-01</leafValues></_>
        <_>
          <internalNodes>
            0 -1 89 -7.7920034527778625e-05</internalNodes>
          <leafValues>
            -7.1146762371063232e-01 2.9626077413558960e-01</leafValues></_>
        <_>
          <internalNodes>
            0 -1 66 8.1389887782279402e-05</internalNodes>
          <leafValues>
            2.3416677117347717e-01 -7.2605711221694946e-01</leafValues></_>
        <_>
          <internalNodes>
            0 -1 63 -1.5267198614310473e-04</internalNodes>
          <leafValues>
            -8.6954927444458008e-01 2.2672568261623383e-01</leafValues></_>
        <_>
          <internalNodes>
            0 -1 32 -1.0315820574760437e-01</internalNodes>
          <leafValues>
            7.4944287538528442e-01 -2.7076637744903564e-01</leafValues></_>
        <_>
          <internalNodes>
            0 -1 38 -5.6731514632701874e-05</internalNodes>
          <leafValues>
            -6.2417727708816528e-01 2.8800278902053833e-01</leafValues></_>
        <_>
          <internalNodes>
            0 -1 14 -3.9157901483122259e-05</internalNodes>
          <leafValues>
            -6.1526125669479370e-01 2.4743896722793579e-01</leafValues></_></weakClassifiers></_>
    <!-- stage 7 -->
    <_>
      <maxWeakCount>9</maxWeakCount>
      <stageThreshold>-1.6826329231262207e+00</stageThreshold>
      <weakClassifiers>
        <_>
          <internalNodes>
            0 -1 17 2.8975592926144600e-02</internalNodes>
          <leafValues>
            -8.0309933423995972e-01 6.9863015413284302e-01</leafValues></_>
        <_>
          <internalNodes>
            0 -1 74 -6.6207693889737129e-03</internalNodes>
          <leafValues>
            5.9632742404937744e-01 -4.6702980995178223e-01</leafValues></_>
        <_>
          <internalNodes>
            0 -1 9 -7.2907097637653351e-03</internalNodes>
          <leafValues>
            7.2414219379425049e-01 -2.5824016332626343e-01</leafValues></_>
        <_>
          <internalNodes>
            0 -1 84 -1.9051611889153719e-04</internalNodes>
          <leafValues>
            -7.1252852678298950e-01 2.5270706415176392e-01</leafValues></_>
        <_>
          <internalNodes>
            0 -1 2 7.4473777785897255e-03</internalNodes>
          <leafValues>
            -2.6058295369148254e-01 5.7483536005020142e-01</leafValues></_>
        <_>
          <internalNodes>
            0 -1 73 2.7295213658362627e-04</internalNodes>
          <leafValues>
            3.7567993998527527e-01 -4.9621349573135376e-01</leafValues></_>
        <_>
          <internalNodes>
            0 -1 6 1.3762317597866058e-02</internalNodes>
          <leafValues>
            1.0809648782014847e-01 -8.5812145471572876e-01</leafValues></_>
        <_>
          <internalNodes>
            0 -1 5 -5.7911183685064316e-03</internalNodes>
          <leafValues>
            -7.3400539159774780e-01 2.2726833820343018e-01</leafValues></_>
        <_>
          <internalNodes>
            0 -1 24 -1.6318134963512421e-02</internalNodes>
          <leafValues>
            -9.6508514881134033e-01 1.0384125262498856e-01</leafValues></_></weakClassifiers></_>
    <!-- stage 8 -->
    <_>
      <maxWeakCount>9</maxWeakCount>
      <stageThreshold>-1.4990339279174805e+00</stageThreshold>
      <weakClassifiers>
        <_>
          <internalNodes>
            0 -1 57 -2.9297064989805222e-02</internalNodes>
          <leafValues>
            1.7117117345333099e-01 -8.0169969797134399e-01</leafValues></_>
        <_>
          <internalNodes>
            0 -1 49 -1.0178104043006897e-01</internalNodes>
          <leafValues>
            -1.2939481995999813e-02 -9.5138919353485107e-01</leafValues></_>
        <_>
          <internalNodes>
            0 -1 12 -6.0140073299407959e-02</internalNodes>
          <leafValues>
            3.3231437206268311e-01 -4.1784900426864624e-01</leafValues></_>
        <_>
          <internalNodes>
            0 -1 36 1.7567100003361702e-03</internalNodes>
          <leafValues>
            -2.1534661948680878e-01 7.1696919202804565e-01</leafValues></_>
        <_>
          <internalNodes>
            0 -1 18 -4.6458189899567515e-05</internalNodes>
          <leafValues>
            -6.1399734020233154e-01 2.5945925712585449e-01</leafValues></_>
        <_>
          <internalNodes>
            0 -1 59 -8.3209097385406494e-02</internalNodes>
          <leafValues>
            9.2921994626522064e-02 -9.2183023691177368e-01</leafValues></_>
        <_>
          <internalNodes>
            0 -1 70 -4.7808565199375153e-02</internalNodes>
          <leafValues>
            7.5150424242019653e-01 -1.7036646604537964e-01</leafValues></_>
        <_>
          <internalNodes>
            0 -1 28 5.0115399062633514e-03</internalNodes>
          <leafValues>
            -2.0994560420513153e-01 7.1653485298156738e-01</leafValues></_>
        <_>
          <internalNodes>
            0 -1 10 -1.5005594119429588e-02</internalNodes>
          <leafValues>
            -8.2184576988220215e-01 1.5943571925163269e-01</leafValues></_></weakClassifiers></_>
    <!-- stage 9 -->
    <_>
      <maxWeakCount>12</maxWeakCount>
      <stageThreshold>-1.5510267019271851e+00</stageThreshold>
      <weakClassifiers>
        <_>
          <internalNodes>
            0 -1 25 7.4791256338357925e-03</internalNodes>
          <leafValues>
            -7.7419352531433105e-01 6.2962961196899414e-01</leafValues></_>
        <_>
          <internalNodes>
            0 -1 4 2.2161278873682022e-02</internalNodes>
          <leafValues>
            -4.4378936290740967e-01 4.6393471956253052e-01</leafValues></_>
        <_>
          <internalNodes>
            0 -1 58 1.0357203334569931e-01</internalNodes>
          <leafValues>
            1.3990584015846252e-01 -7.9979383945465088e-01</leafValues></_>
        <_>
          <internalNodes>
            0 -1 77 9.4710178673267365e-03</internalNodes>
          <leafValues>
            -1.7911756038665771e-01 6.8392425775527954e-01</leafValues></_>
        <_>
          <internalNodes>
            0 -1 45 1.3199681043624878e-01</internalNodes>
          <leafValues>
            -1.2536488473415375e-01 6.7663019895553589e-01</leafValues></_>
        <_>
          <internalNodes>
            0 -1 62 1.3511260040104389e-02</internalNodes>
          <leafValues>
            -2.7786457538604736e-01 5.1400518417358398e-01</leafValues></_>
        <_>
          <internalNodes>
            0 -1 14 1.7866818234324455e-04</internalNodes>
          <leafValues>
            1.8924537301063538e-01 -6.2321662902832031e-01</leafValues></_>
        <_>
          <internalNodes>
            0 -1 81 2.1397445350885391e-02</internalNodes>
          <leafValues>
            1.2661506235599518e-01 -9.2249929904937744e-01</leafValues></_>
        <_>
          <internalNodes>
            0 -1 31 1.8919220566749573e-01</internalNodes>
          <leafValues>
            9.5242187380790710e-02 -7.8339934349060059e-01</leafValues></_>
        <_>
          <internalNodes>
            0 -1 23 -8.3699777722358704e-02</internalNodes>
          <leafValues>
            -9.7137582302093506e-01 8.6431629955768585e-02</leafValues></_>
        <_>
          <internalNodes>
            0 -1 48 -1.7197320994455367e-04</internalNodes>
          <leafValues>
            -7.4497765302658081e-01 8.6170785129070282e-02</leafValues></_>
        <_>
          <internalNodes>
            0 -1 40 -2.5553489103913307e-03</internalNodes>
          <leafValues>
            3.5684072971343994e-01 -2.6354649662971497e-01</leafValues></_></weakClassifiers></_>
    <!-- stage 10 -->
    <_>
      <maxWeakCount>12</maxWeakCount>
      <stageThreshold>-1.4361441135406494e+00</stageThreshold>
      <weakClassifiers>
        <_>
          <internalNodes>
            0 -1 8 1.0730980336666107e-01</internalNodes>
          <leafValues>
            -7.6241135597229004e-01 7.1428573131561279e-01</leafValues></_>
        <_>
          <internalNodes>
            0 -1 35 6.1897151172161102e-02</internalNodes>
          <leafValues>
            -4.5033663511276245e-01 3.2371824979782104e-01</leafValues></_>
        <_>
          <internalNodes>
            0 -1 34 -1.6617313027381897e-02</internalNodes>
          <leafValues>
            4.9395331740379333e-01 -2.3847348988056183e-01</leafValues></_>
        <_>
          <internalNodes>
            0 -1 33 4.3709976598620415e-03</internalNodes>
          <leafValues>
            -1.2010712921619415e-01 7.8182405233383179e-01</leafValues></_>
        <_>
          <internalNodes>
            0 -1 78 3.7967716343700886e-03</internalNodes>
          <leafValues>
            -2.7991420030593872e-01 3.8261353969573975e-01</leafValues></_>
        <_>
          <internalNodes>
            0 -1 37 5.0368858501315117e-03</internalNodes>
          <leafValues>
            -2.0041033625602722e-01 5.6532502174377441e-01</leafValues></_>
        <_>
          <internalNodes>
            0 -1 51 1.0669173207134008e-04</internalNodes>
          <leafValues>
            1.7775468528270721e-01 -6.6581577062606812e-01</leafValues></_>
        <_>
          <internalNodes>
            0 -1 30 -5.1894653588533401e-03</internalNodes>
          <leafValues>
            4.3500378727912903e-01 -2.5381058454513550e-01</leafValues></_>
        <_>
          <internalNodes>
            0 -1 69 -3.8900069193914533e-04</internalNodes>
          <leafValues>
            -6.2427920103073120e-01 1.6457243263721466e-01</leafValues></_>
        <_>
          <internalNodes>
            0 -1 86 1.2049142969772220e-03</internalNodes>
          <leafValues>
            1.5268614888191223e-01 -6.6390329599380493e-01</leafValues></_>
        <_>
          <internalNodes>
            0 -1 80 -4.6313376515172422e-04</internalNodes>
          <leafValues>
            -6.0713565349578857e-01 1.5434874594211578e-01</leafValues></_>
        <_>
          <internalNodes>
            0 -1 75 5.0879591144621372e-03</internalNodes>
          <leafValues>
            -2.4527953565120697e-01 4.5958045125007629e-01</leafValues></_></weakClassifiers></_>
    <!-- stage 11 -->
    <_>
      <maxWeakCount>12</maxWeakCount>
      <stageThreshold>-1.4135497808456421e+00</stageThreshold>
      <weakClassifiers>
        <_>
          <internalNodes>
            0 -1 25 7.5648175552487373e-03</internalNodes>
          <leafValues>
            -7.7028256654739380e-01 2.0547945797443390e-01</leafValues></_>
        <_>
          <internalNodes>
            0 -1 71 2.7252053841948509e-02</internalNodes>
          <leafValues>
            -4.3962949514389038e-01 2.5002667307853699e-01</leafValues></_>
        <_>
          <internalNodes>
            0 -1 72 -1.8768489360809326e-02</internalNodes>
          <leafValues>
            4.7183534502983093e-01 -2.0696096122264862e-01</leafValues></_>
        <_>
          <internalNodes>
            0 -1 88 -1.2751435860991478e-03</internalNodes>
          <leafValues>
            -5.1748389005661011e-01 1.8094219267368317e-01</leafValues></_>
        <_>
          <internalNodes>
            0 -1 44 -1.8125303089618683e-01</internalNodes>
          <leafValues>
            1.3469325006008148e-01 -9.5294266939163208e-01</leafValues></_>
        <_>
          <internalNodes>
            0 -1 53 2.1162582561373711e-04</internalNodes>
          <leafValues>
            -3.1045129895210266e-01 2.8140985965728760e-01</leafValues></_>
        <_>
          <internalNodes>
            0 -1 29 -8.0052077770233154e-02</internalNodes>
          <leafValues>
            6.3519150018692017e-01 -1.6193167865276337e-01</leafValues></_>
        <_>
          <internalNodes>
            0 -1 61 -8.8206422515213490e-04</internalNodes>
          <leafValues>
            -1.4678941667079926e-01 6.3158619403839111e-01</leafValues></_>
        <_>
          <internalNodes>
            0 -1 56 1.3920681551098824e-02</internalNodes>
          <leafValues>
            -2.9097446799278259e-01 4.3815061450004578e-01</leafValues></_>
        <_>
          <internalNodes>
            0 -1 24 1.7019830644130707e-02</internalNodes>
          <leafValues>
            1.1202155798673630e-01 -9.3303626775741577e-01</leafValues></_>
        <_>
          <internalNodes>
            0 -1 15 8.4752304246649146e-05</internalNodes>
          <leafValues>
            8.6701057851314545e-02 -7.3638159036636353e-01</leafValues></_>
        <_>
          <internalNodes>
            0 -1 39 6.1558708548545837e-02</internalNodes>
          <leafValues>
            -1.5200024843215942e-01 6.3033360242843628e-01</leafValues></_></weakClassifiers></_></stages>
  <features>
    <_>
      <rects>
        <_>
          0 0 2 14 -1.</_>
        <_>
          0 0 1 7 2.</_>
        <_>
          1 7 1 7 2.</_></rects>
      <tilted>0</tilted></_>
    <_>
      <rects>
        <_>
          0 0 2 9 -1.</_>
        <_>
          1 0 1 9 2.</_></rects>
      <tilted>0</tilted></_>
    <_>
      <rects>
        <_>
          0 0 2 24 -1.</_>
        <_>
          0 0 1 12 2.</_>
        <_>
          1 12 1 12 2.</_></rects>
      <tilted>0</tilted></_>
    <_>
      <rects>
        <_>
          0 0 2 23 -1.</_>
        <_>
          1 0 1 23 2.</_></rects>
      <tilted>0</tilted></_>
    <_>
      <rects>
        <_>
          0 0 4 22 -1.</_>
        <_>
          0 0 2 11 2.</_>
        <_>
          2 11 2 11 2.</_></rects>
      <tilted>0</tilted></_>
    <_>
      <rects>
        <_>
          0 0 22 1 -1.</_>
        <_>
          11 0 11 1 2.</_></rects>
      <tilted>0</tilted></_>
    <_>
      <rects>
        <_>
          0 0 24 1 -1.</_>
        <_>
          12 0 12 1 2.</_></rects>
      <tilted>0</tilted></_>
    <_>
      <rects>
        <_>
          0 0 20 2 -1.</_>
        <_>
          0 1 20 1 2.</_></rects>
      <tilted>0</tilted></_>
    <_>
      <rects>
        <_>
          0 0 24 4 -1.</_>
        <_>
          0 2 24 2 2.</_></rects>
      <tilted>0</tilted></_>
    <_>
      <rects>
        <_>
          0 1 2 22 -1.</_>
        <_>
          0 1 1 11 2.</_>
        <_>
          1 12 1 11 2.</_></rects>
      <tilted>0</tilted></_>
    <_>
      <rects>
        <_>
          0 2 1 22 -1.</_>
        <_>
          0 13 1 11 2.</_></rects>
      <tilted>0</tilted></_>
    <_>
      <rects>
        <_>
          0 2 24 21 -1.</_>
        <_>
          0 9 24 7 2.</_></rects>
      <tilted>0</tilted></_>
    <_>
      <rects>
        <_>
          0 5 10 14 -1.</_>
        <_>
          5 5 5 14 2.</_></rects>
      <tilted>0</tilted></_>
    <_>
      <rects>
        <_>
          0 6 14 13 -1.</_>
        <_>
          7 6 7 13 2.</_></rects>
      <tilted>0</tilted></_>
    <_>
      <rects>
        <_>
          0 9 2 2 -1.</_>
        <_>
          0 9 1 1 2.</_>
        <_>
          1 10 1 1 2.</_></rects>
      <tilted>0</tilted></_>
    <_>
      <rects>
        <_>
          0 10 2 1 -1.</_>
        <_>
          1 10 1 1 2.</_></rects>
      <tilted>0</tilted></_>
    <_>
      <rects>
        <_>
          0 10 24 5 -1.</_>
        <_>
          8 10 8 5 2.</_></rects>
      <tilted>0</tilted></_>
    <_>
      <rects>
        <_>
          0 10 24 6 -1.</_>
        <_>
          8 10 8 6 2.</_></rects>
      <tilted>0</tilted></_>
    <_>
      <rects>
        <_>
          0 11 2 2 -1.</_>
        <_>
          0 11 1 1 2.</_>
        <_>
          1 12 1 1 2.</_></rects>
      <tilted>0</tilted></_>
    <_>
      <rects>
        <_>
          0 11 1 8 -1.</_>
        <_>
          0 15 1 4 2.</_></rects>
      <tilted>0</tilted></_>
    <_>
      <rects>
        <_>
          0 11 2 2 -1.</_>
        <_>
          0 12 2 1 2.</_></rects>
      <tilted>0</tilted></_>
    <_>
      <rects>
        <_>
          0 12 1 6 -1.</_>
        <_>
          0 15 1 3 2.</_></rects>
      <tilted>0</tilted></_>
    <_>
      <rects>
        <_>
          0 12 24 1 -1.</_>
        <_>
          8 12 8 1 2.</_></rects>
      <tilted>0</tilted></_>
    <_>
      <rects>
        <_>
          0 13 24 4 -1.</_>
        <_>
          12 13 12 4 2.</_></rects>
      <tilted>0</tilted></_>
    <_>
      <rects>
        <_>
          0 23 22 1 -1.</_>
        <_>
          11 23 11 1 2.</_></rects>
      <tilted>0</tilted></_>
    <_>
      <rects>
        <_>
          1 0 4 2 -1.</_>
        <_>
          1 1 4 1 2.</_></rects>
      <tilted>0</tilted></_>
    <_>
      <rects>
        <_>
          1 0 16 1 -1.</_>
        <_>
          9 0 8 1 2.</_></rects>
      <tilted>0</tilted></_>
    <_>
      <rects>
        <_>
          1 0 14 4 -1.</_>
        <_>
          1 2 14 2 2.</_></rects>
      <tilted>0</tilted></_>
    <_>
      <rects>
        <_>
          2 0 12 2 -1.</_>
        <_>
          2 0 6 1 2.</_>
        <_>
          8 1 6 1 2.</_></rects>
      <tilted>0</tilted></_>
    <_>
      <rects>
        <_>
          2 0 12 12 -1.</_>
        <_>
          2 0 6 6 2.</_>
        <_>
          8 6 6 6 2.</_></rects>
      <tilted>0</tilted></_>
    <_>
      <rects>
        <_>
          2 0 18 2 -1.</_>
        <_>
          2 1 18 1 2.</_></rects>
      <tilted>0</tilted></_>
    <_>
      <rects>
        <_>
          2 2 22 10 -1.</_>
        <_>
          13 2 11 10 2.</_></rects>
      <tilted>0</tilted></_>
    <_>
      <rects>
        <_>
          2 3 5 20 -1.</_>
        <_>
          2 13 5 10 2.</_></rects>
      <tilted>0</tilted></_>
    <_>
      <rects>
        <_>
          2 3 21 1 -1.</_>
        <_>
          9 3 7 1 2.</_></rects>
      <tilted>0</tilted></_>
    <_>
      <rects>
        <_>
          3 2 1 20 -1.</_>
        <_>
          3 12 1 10 2.</_></rects>
      <tilted>0</tilted></_>
    <_>
      <rects>
        <_>
          3 2 4 18 -1.</_>
        <_>
          3 11 4 9 2.</_></rects>
      <tilted>0</tilted></_>
    <_>
      <rects>
        <_>
          3 12 21 2 -1.</_>
        <_>
          10 12 7 2 2.</_></rects>
      <tilted>0</tilted></_>
    <_>
      <rects>
        <_>
          4 0 19 2 -1.</_>
        <_>
          4 1 19 1 2.</_></rects>
      <tilted>0</tilted></_>
    <_>
      <rects>
        <_>
          4 2 2 1 -1.</_>
        <_>
          5 2 1 1 2.</_></rects>
      <tilted>0</tilted></_>
    <_>
      <rects>
        <_>
          4 9 8 14 -1.</_>
        <_>
          4 9 4 7 2.</_>
        <_>
          8 16 4 7 2.</_></rects>
      <tilted>0</tilted></_>
    <_>
      <rects>
        <_>
          4 22 20 2 -1.</_>
        <_>
          4 22 10 1 2.</_>
        <_>
          14 23 10 1 2.</_></rects>
      <tilted>0</tilted></_>
    <_>
      <rects>
        <_>
          5 0 9 4 -1.</_>
        <_>
          5 2 9 2 2.</_></rects>
      <tilted>0</tilted></_>
    <_>
      <rects>
        <_>
          5 0 12 8 -1.</_>
        <_>
          5 4 12 4 2.</_></rects>
      <tilted>0</tilted></_>
    <_>
      <rects>
        <_>
          5 2 6 13 -1.</_>
        <_>
          7 2 2 13 2.</_></rects>
      <tilted>0</tilted></_>
    <_>
      <rects>
        <_>
          5 2 17 15 -1.</_>
        <_>
          5 7 17 5 2.</_></rects>
      <tilted>0</tilted></_>
    <_>
      <rects>
        <_>
          5 4 13 14 -1.</_>
        <_>
          5 11 13 7 2.</_></rects>
      <tilted>0</tilted></_>
    <_>
      <rects>
        <_>
          5 23 18 1 -1.</_>
        <_>
          14 23 9 1 2.</_></rects>
      <tilted>0</tilted></_>
    <_>
      <rects>
        <_>
          6 0 1 9 -1.</_>
        <_>
          6 3 1 3 2.</_></rects>
      <tilted>0</tilted></_>
    <_>
      <rects>
        <_>
          7 0 2 1 -1.</_>
        <_>
          8 0 1 1 2.</_></rects>
      <tilted>0</tilted></_>
    <_>
      <rects>
        <_>
          7 6 9 16 -1.</_>
        <_>
          10 6 3 16 2.</_></rects>
      <tilted>0</tilted></_>
    <_>
      <rects>
        <_>
          7 20 10 4 -1.</_>
        <_>
          7 22 10 2 2.</_></rects>
      <tilted>0</tilted></_>
    <_>
      <rects>
        <_>
          8 0 2 1 -1.</_>
        <_>
          9 0 1 1 2.</_></rects>
      <tilted>0</tilted></_>
    <_>
      <rects>
        <_>
          9 0 2 1 -1.</_>
        <_>
          10 0 1 1 2.</_></rects>
      <tilted>0</tilted></_>
    <_>
      <rects>
        <_>
          9 10 2 2 -1.</_>
        <_>
          10 10 1 2 2.</_></rects>
      <tilted>0</tilted></_>
    <_>
      <rects>
        <_>
          9 11 2 3 -1.</_>
        <_>
          9 12 2 1 2.</_></rects>
      <tilted>0</tilted></_>
    <_>
      <rects>
        <_>
          9 18 8 4 -1.</_>
        <_>
          13 18 4 4 2.</_></rects>
      <tilted>0</tilted></_>
    <_>
      <rects>
        <_>
          9 18 5 6 -1.</_>
        <_>
          9 21 5 3 2.</_></rects>
      <tilted>0</tilted></_>
    <_>
      <rects>
        <_>
          9 18 9 6 -1.</_>
        <_>
          9 21 9 3 2.</_></rects>
      <tilted>0</tilted></_>
    <_>
      <rects>
        <_>
          10 0 5 24 -1.</_>
        <_>
          10 12 5 12 2.</_></rects>
      <tilted>0</tilted></_>
    <_>
      <rects>
        <_>
          11 9 12 9 -1.</_>
        <_>
          11 12 12 3 2.</_></rects>
      <tilted>0</tilted></_>
    <_>
      <rects>
        <_>
          11 19 6 1 -1.</_>
        <_>
          14 19 3 1 2.</_></rects>
      <tilted>0</tilted></_>
    <_>
      <rects>
        <_>
          11 23 3 1 -1.</_>
        <_>
          12 23 1 1 2.</_></rects>
      <tilted>0</tilted></_>
    <_>
      <rects>
        <_>
          12 16 2 8 -1.</_>
        <_>
          12 20 2 4 2.</_></rects>
      <tilted>0</tilted></_>
    <_>
      <rects>
        <_>
          13 0 2 1 -1.</_>
        <_>
          14 0 1 1 2.</_></rects>
      <tilted>0</tilted></_>
    <_>
      <rects>
        <_>
          13 4 9 13 -1.</_>
        <_>
          16 4 3 13 2.</_></rects>
      <tilted>0</tilted></_>
    <_>
      <rects>
        <_>
          13 9 1 15 -1.</_>
        <_>
          13 14 1 5 2.</_></rects>
      <tilted>0</tilted></_>
    <_>
      <rects>
        <_>
          14 0 2 1 -1.</_>
        <_>
          15 0 1 1 2.</_></rects>
      <tilted>0</tilted></_>
    <_>
      <rects>
        <_>
          14 5 10 17 -1.</_>
        <_>
          19 5 5 17 2.</_></rects>
      <tilted>0</tilted></_>
    <_>
      <rects>
        <_>
          14 6 10 16 -1.</_>
        <_>
          19 6 5 16 2.</_></rects>
      <tilted>0</tilted></_>
    <_>
      <rects>
        <_>
          17 20 4 2 -1.</_>
        <_>
          17 20 2 1 2.</_>
        <_>
          19 21 2 1 2.</_></rects>
      <tilted>0</tilted></_>
    <_>
      <rects>
        <_>
          19 2 2 18 -1.</_>
        <_>
          19 11 2 9 2.</_></rects>
      <tilted>0</tilted></_>
    <_>
      <rects>
        <_>
          20 2 2 22 -1.</_>
        <_>
          20 13 2 11 2.</_></rects>
      <tilted>0</tilted></_>
    <_>
      <rects>
        <_>
          20 3 1 20 -1.</_>
        <_>
          20 13 1 10 2.</_></rects>
      <tilted>0</tilted></_>
    <_>
      <rects>
        <_>
          21 11 3 4 -1.</_>
        <_>
          21 13 3 2 2.</_></rects>
      <tilted>0</tilted></_>
    <_>
      <rects>
        <_>
          22 0 2 20 -1.</_>
        <_>
          22 0 1 10 2.</_>
        <_>
          23 10 1 10 2.</_></rects>
      <tilted>0</tilted></_>
    <_>
      <rects>
        <_>
          22 0 2 24 -1.</_>
        <_>
          22 0 1 12 2.</_>
        <_>
          23 12 1 12 2.</_></rects>
      <tilted>0</tilted></_>
    <_>
      <rects>
        <_>
          22 0 2 24 -1.</_>
        <_>
          23 0 1 24 2.</_></rects>
      <tilted>0</tilted></_>
    <_>
      <rects>
        <_>
          22 1 2 22 -1.</_>
        <_>
          22 1 1 11 2.</_>
        <_>
          23 12 1 11 2.</_></rects>
      <tilted>0</tilted></_>
    <_>
      <rects>
        <_>
          22 2 2 21 -1.</_>
        <_>
          23 2 1 21 2.</_></rects>
      <tilted>0</tilted></_>
    <_>
      <rects>
        <_>
          22 12 1 3 -1.</_>
        <_>
          22 13 1 1 2.</_></rects>
      <tilted>0</tilted></_>
    <_>
      <rects>
        <_>
          22 14 2 4 -1.</_>
        <_>
          22 16 2 2 2.</_></rects>
      <tilted>0</tilted></_>
    <_>
      <rects>
        <_>
          23 0 1 24 -1.</_>
        <_>
          23 12 1 12 2.</_></rects>
      <tilted>0</tilted></_>
    <_>
      <rects>
        <_>
          23 9 1 15 -1.</_>
        <_>
          23 14 1 5 2.</_></rects>
      <tilted>0</tilted></_>
    <_>
      <rects>
        <_>
          23 10 1 2 -1.</_>
        <_>
          23 11 1 1 2.</_></rects>
      <tilted>0</tilted></_>
    <_>
      <rects>
        <_>
          23 11 1 4 -1.</_>
        <_>
          23 13 1 2 2.</_></rects>
      <tilted>0</tilted></_>
    <_>
      <rects>
        <_>
          23 12 1 4 -1.</_>
        <_>
          23 14 1 2 2.</_></rects>
      <tilted>0</tilted></_>
    <_>
      <rects>
        <_>
          23 12 1 12 -1.</_>
        <_>
          23 18 1 6 2.</_></rects>
      <tilted>0</tilted></_>
    <_>
      <rects>
        <_>
          23 13 1 2 -1.</_>
        <_>
          23 14 1 1 2.</_></rects>
      <tilted>0</tilted></_>
    <_>
      <rects>
        <_>
          23 15 1 8 -1.</_>
        <_>
          23 19 1 4 2.</_></rects>
      <tilted>0</tilted></_>
    <_>
      <rects>
        <_>
          23 22 1 2 -1.</_>
        <_>
          23 23 1 1 2.</_></rects>
      <tilted>0</tilted></_></features></cascade>
</opencv_storage>
