<?xml version="1.0"?>
<opencv_storage>
<cascade>
  <stageType>BOOST</stageType>
  <featureType>HAAR</featureType>
  <height>24</height>
  <width>24</width>
  <stageParams>
    <boostType>GAB</boostType>
    <minHitRate>9.9900001287460327e-01</minHitRate>
    <maxFalseAlarm>4.0000000596046448e-01</maxFalseAlarm>
    <weightTrimRate>9.4999999999999996e-01</weightTrimRate>
    <maxDepth>1</maxDepth>
    <maxWeakCount>100</maxWeakCount></stageParams>
  <featureParams>
    <maxCatCount>0</maxCatCount>
    <featSize>1</featSize>
    <mode>BASIC</mode></featureParams>
  <stageNum>12</stageNum>
  <stages>
    <!-- stage 0 -->
    <_>
      <maxWeakCount>7</maxWeakCount>
      <stageThreshold>-1.5721172094345093e+00</stageThreshold>
      <weakClassifiers>
        <_>
          <internalNodes>
            0 -1 4 -3.6333896219730377e-02</internalNodes>
          <leafValues>
            -8.2465755939483643e-01 9.7333335876464844e-01</leafValues></_>
        <_>
          <internalNodes>
            0 -1 48 -1.4039131999015808e-01</internalNodes>
          <leafValues>
            7.6658970117568970e-01 -7.0465213060379028e-01</leafValues></_>
        <_>
          <internalNodes>
            0 -1 74 -1.0687149188015610e-04</internalNodes>
          <leafValues>
            -8.6673796176910400e-01 3.3414688706398010e-01</leafValues></_>
        <_>
          <internalNodes>
            0 -1 80 -2.9881697264499962e-04</internalNodes>
          <leafValues>
            -8.4848135709762573e-01 2.5225964188575745e-01</leafValues></_>
        <_>
          <internalNodes>
            0 -1 73 9.3525659758597612e-04</internalNodes>
          <leafValues>
            3.2192629575729370e-01 -8.3498865365982056e-01</leafValues></_>
        <_>
          <internalNodes>
            0 -1 61 9.6876442432403564e-02</internalNodes>
          <leafValues>
            -4.6758803725242615e-01 4.9965327978134155e-01</leafValues></_>
        <_>
          <internalNodes>
            0 -1 26 -2.1804228425025940e-01</internalNodes>
          <leafValues>
            -2.4990878999233246e-01 9.7689187526702881e-01</leafValues></_></weakClassifiers></_>
    <!-- stage 1 -->
    <_>
      <maxWeakCount>6</maxWeakCount>
      <stageThreshold>-1.5080980062484741e+00</stageThreshold>
      <weakClassifiers>
        <_>
          <internalNodes>
            0 -1 16 -4.6810783445835114e-02</internalNodes>
          <leafValues>
            -8.1586146354675293e-01 8.9041095972061157e-01</leafValues></_>
        <_>
          <internalNodes>
            0 -1 3 -8.1274202093482018e-03</internalNodes>
          <leafValues>
            5.1683378219604492e-01 -7.0166778564453125e-01</leafValues></_>
        <_>
          <internalNodes>
            0 -1 75 2.1577370353043079e-04</internalNodes>
          <leafValues>
            3.3378413319587708e-01 -6.9689708948135376e-01</leafValues></_>
        <_>
          <internalNodes>
            0 -1 56 -4.5567878987640142e-04</internalNodes>
          <leafValues>
            -6.7906916141510010e-01 2.4450521171092987e-01</leafValues></_>
        <_>
          <internalNodes>
            0 -1 44 9.2979613691568375e-03</internalNodes>
          <leafValues>
            2.8423306345939636e-01 -8.9811074733734131e-01</leafValues></_>
        <_>
          <internalNodes>
            0 -1 18 -4.1843560757115483e-04</internalNodes>
          <leafValues>
            -7.9175877571105957e-01 1.4143224060535431e-01</leafValues></_></weakClassifiers></_>
    <!-- stage 2 -->
    <_>
      <maxWeakCount>5</maxWeakCount>
      <stageThreshold>-1.4898706674575806e+00</stageThreshold>
      <weakClassifiers>
        <_>
          <internalNodes>
            0 -1 25 2.8550496790558100e-04</internalNodes>
          <leafValues>
            -8.1653040647506714e-01 1.</leafValues></_>
        <_>
          <internalNodes>
            0 -1 10 -8.5330255329608917e-02</internalNodes>
          <leafValues>
            6.9293743371963501e-01 -8.2749432325363159e-01</leafValues></_>
        <_>
          <internalNodes>
            0 -1 60 -6.9841727614402771e-02</internalNodes>
          <leafValues>
            2.6826509833335876e-01 -1.</leafValues></_>
        <_>
          <internalNodes>
            0 -1 9 1.8915411829948425e-01</internalNodes>
          <leafValues>
            -3.6128988862037659e-01 8.0338072776794434e-01</leafValues></_>
        <_>
          <internalNodes>
            0 -1 64 -2.4215097073465586e-04</internalNodes>
          <leafValues>
            -8.6606681346893311e-01 2.4717891216278076e-01</leafValues></_></weakClassifiers></_>
    <!-- stage 3 -->
    <_>
      <maxWeakCount>4</maxWeakCount>
      <stageThreshold>-1.5811733007431030e+00</stageThreshold>
      <weakClassifiers>
        <_>
          <internalNodes>
            0 -1 22 -3.3457465469837189e-02</internalNodes>
          <leafValues>
            -8.2067704200744629e-01 8.7012988328933716e-01</leafValues></_>
        <_>
          <internalNodes>
            0 -1 13 -6.1630360782146454e-02</internalNodes>
          <leafValues>
            6.1977410316467285e-01 -8.6390966176986694e-01</leafValues></_>
        <_>
          <internalNodes>
            0 -1 7 2.7911093638977036e-05</internalNodes>
          <leafValues>
            -4.8654767870903015e-01 5.3495472669601440e-01</leafValues></_>
        <_>
          <internalNodes>
            0 -1 66 -2.7830142062157393e-04</internalNodes>
          <leafValues>
            5.8996111154556274e-01 -4.1716134548187256e-01</leafValues></_></weakClassifiers></_>
    <!-- stage 4 -->
    <_>
      <maxWeakCount>7</maxWeakCount>
      <stageThreshold>-1.8508616685867310e+00</stageThreshold>
      <weakClassifiers>
        <_>
          <internalNodes>
            0 -1 28 7.8320724423974752e-04</internalNodes>
          <leafValues>
            -8.1535649299621582e-01 8.1578946113586426e-01</leafValues></_>
        <_>
          <internalNodes>
            0 -1 55 7.3596751317381859e-03</internalNodes>
          <leafValues>
            -7.7164614200592041e-01 4.3977957963943481e-01</leafValues></_>
        <_>
          <internalNodes>
            0 -1 69 -4.7573111951351166e-02</internalNodes>
          <leafValues>
            -4.8271265625953674e-01 5.4636472463607788e-01</leafValues></_>
        <_>
          <internalNodes>
            0 -1 50 -3.7969917058944702e-02</internalNodes>
          <leafValues>
            6.3988238573074341e-01 -2.8424829244613647e-01</leafValues></_>
        <_>
          <internalNodes>
            0 -1 58 1.6190888360142708e-02</internalNodes>
          <leafValues>
            -2.4485225975513458e-01 7.0052868127822876e-01</leafValues></_>
        <_>
          <internalNodes>
            0 -1 15 -1.0182676464319229e-01</internalNodes>
          <leafValues>
            4.8072034120559692e-01 -3.4923225641250610e-01</leafValues></_>
        <_>
          <internalNodes>
            0 -1 6 -1.4201253652572632e-02</internalNodes>
          <leafValues>
            -8.8268834352493286e-01 1.7305573821067810e-01</leafValues></_></weakClassifiers></_>
    <!-- stage 5 -->
    <_>
      <maxWeakCount>4</maxWeakCount>
      <stageThreshold>-1.9738188982009888e+00</stageThreshold>
      <weakClassifiers>
        <_>
          <internalNodes>
            0 -1 11 -2.0994788408279419e-01</internalNodes>
          <leafValues>
            -8.2067704200744629e-01 8.7012988328933716e-01</leafValues></_>
        <_>
          <internalNodes>
            0 -1 41 -4.8160642385482788e-02</internalNodes>
          <leafValues>
            -9.5441716909408569e-01 1.5590062737464905e-01</leafValues></_>
        <_>
          <internalNodes>
            0 -1 31 -4.3693301267921925e-03</internalNodes>
          <leafValues>
            5.6950432062149048e-01 -4.2725932598114014e-01</leafValues></_>
        <_>
          <internalNodes>
            0 -1 29 -1.5134702436625957e-02</internalNodes>
          <leafValues>
            -9.7490030527114868e-01 2.2853463888168335e-01</leafValues></_></weakClassifiers></_>
    <!-- stage 6 -->
    <_>
      <maxWeakCount>7</maxWeakCount>
      <stageThreshold>-1.4837018251419067e+00</stageThreshold>
      <weakClassifiers>
        <_>
          <internalNodes>
            0 -1 8 -2.5671106576919556e-01</internalNodes>
          <leafValues>
            -8.1785064935684204e-01 9.4444441795349121e-01</leafValues></_>
        <_>
          <internalNodes>
            0 -1 72 6.2525095418095589e-03</internalNodes>
          <leafValues>
            -6.7946863174438477e-01 4.0166389942169189e-01</leafValues></_>
        <_>
          <internalNodes>
            0 -1 81 -8.9421664597466588e-05</internalNodes>
          <leafValues>
            -7.5447463989257813e-01 3.0016562342643738e-01</leafValues></_>
        <_>
          <internalNodes>
            0 -1 37 -2.6531696319580078e-01</internalNodes>
          <leafValues>
            -3.3709797263145447e-01 5.7895636558532715e-01</leafValues></_>
        <_>
          <internalNodes>
            0 -1 35 -7.8802471980452538e-03</internalNodes>
          <leafValues>
            6.1654204130172729e-01 -3.4596416354179382e-01</leafValues></_>
        <_>
          <internalNodes>
            0 -1 76 8.8721964857541025e-05</internalNodes>
          <leafValues>
            3.0127465724945068e-01 -7.7462399005889893e-01</leafValues></_>
        <_>
          <internalNodes>
            0 -1 19 7.9243363870773464e-05</internalNodes>
          <leafValues>
            2.3382529616355896e-01 -6.5774071216583252e-01</leafValues></_></weakClassifiers></_>
    <!-- stage 7 -->
    <_>
      <maxWeakCount>7</maxWeakCount>
      <stageThreshold>-1.7571085691452026e+00</stageThreshold>
      <weakClassifiers>
        <_>
          <internalNodes>
            0 -1 47 -3.6844319105148315e-01</internalNodes>
          <leafValues>
            -8.4215414524078369e-01 8.2795697450637817e-01</leafValues></_>
        <_>
          <internalNodes>
            0 -1 0 5.9744906611740589e-03</internalNodes>
          <leafValues>
            -5.2106130123138428e-01 6.1154371500015259e-01</leafValues></_>
        <_>
          <internalNodes>
            0 -1 71 6.7536197602748871e-03</internalNodes>
          <leafValues>
            -3.0209264159202576e-01 7.0531415939331055e-01</leafValues></_>
        <_>
          <internalNodes>
            0 -1 19 -1.0397231380920857e-04</internalNodes>
          <leafValues>
            -7.7369093894958496e-01 2.9737269878387451e-01</leafValues></_>
        <_>
          <internalNodes>
            0 -1 78 -2.7848739409819245e-04</internalNodes>
          <leafValues>
            -6.3667148351669312e-01 2.7100339531898499e-01</leafValues></_>
        <_>
          <internalNodes>
            0 -1 43 -4.0021917223930359e-01</internalNodes>
          <leafValues>
            -2.3762129247188568e-01 8.4380936622619629e-01</leafValues></_>
        <_>
          <internalNodes>
            0 -1 63 -3.2832012511789799e-03</internalNodes>
          <leafValues>
            5.8441507816314697e-01 -3.5889840126037598e-01</leafValues></_></weakClassifiers></_>
    <!-- stage 8 -->
    <_>
      <maxWeakCount>9</maxWeakCount>
      <stageThreshold>-1.6671086549758911e+00</stageThreshold>
      <weakClassifiers>
        <_>
          <internalNodes>
            0 -1 21 2.8741342946887016e-02</internalNodes>
          <leafValues>
            -7.9981803894042969e-01 6.9014084339141846e-01</leafValues></_>
        <_>
          <internalNodes>
            0 -1 59 1.1632040143013000e-01</internalNodes>
          <leafValues>
            -4.0234395861625671e-01 7.8920346498489380e-01</leafValues></_>
        <_>
          <internalNodes>
            0 -1 23 -1.9678983092308044e-01</internalNodes>
          <leafValues>
            -8.6014753580093384e-01 1.6055540740489960e-01</leafValues></_>
        <_>
          <internalNodes>
            0 -1 30 1.4596708118915558e-02</internalNodes>
          <leafValues>
            1.2384402751922607e-01 -8.5140269994735718e-01</leafValues></_>
        <_>
          <internalNodes>
            0 -1 38 3.2930432353168726e-03</internalNodes>
          <leafValues>
            -3.0945447087287903e-01 4.4960549473762512e-01</leafValues></_>
        <_>
          <internalNodes>
            0 -1 20 -3.0350184533745050e-03</internalNodes>
          <leafValues>
            -1.6727834939956665e-01 8.5483926534652710e-01</leafValues></_>
        <_>
          <internalNodes>
            0 -1 14 -6.4166814088821411e-02</internalNodes>
          <leafValues>
            4.9757245182991028e-01 -4.1549032926559448e-01</leafValues></_>
        <_>
          <internalNodes>
            0 -1 67 -5.0806753337383270e-02</internalNodes>
          <leafValues>
            8.0758661031723022e-01 -1.9705122709274292e-01</leafValues></_>
        <_>
          <internalNodes>
            0 -1 65 4.9139924347400665e-02</internalNodes>
          <leafValues>
            -4.1913163661956787e-01 3.8530957698822021e-01</leafValues></_></weakClassifiers></_>
    <!-- stage 9 -->
    <_>
      <maxWeakCount>10</maxWeakCount>
      <stageThreshold>-1.4304990768432617e+00</stageThreshold>
      <weakClassifiers>
        <_>
          <internalNodes>
            0 -1 62 -1.6014429926872253e-01</internalNodes>
          <leafValues>
            2.8888890147209167e-01 -7.9259258508682251e-01</leafValues></_>
        <_>
          <internalNodes>
            0 -1 51 -1.3881139457225800e-01</internalNodes>
          <leafValues>
            4.8329800367355347e-01 -4.2067545652389526e-01</leafValues></_>
        <_>
          <internalNodes>
            0 -1 52 -9.4757154583930969e-02</internalNodes>
          <leafValues>
            1.3153912127017975e-01 -9.1992008686065674e-01</leafValues></_>
        <_>
          <internalNodes>
            0 -1 68 -2.1916465833783150e-02</internalNodes>
          <leafValues>
            7.3601049184799194e-01 -1.6821824014186859e-01</leafValues></_>
        <_>
          <internalNodes>
            0 -1 27 4.8389157745987177e-04</internalNodes>
          <leafValues>
            1.8092831969261169e-01 -7.6998728513717651e-01</leafValues></_>
        <_>
          <internalNodes>
            0 -1 77 -2.4853507056832314e-04</internalNodes>
          <leafValues>
            -6.6964620351791382e-01 1.5405927598476410e-01</leafValues></_>
        <_>
          <internalNodes>
            0 -1 5 1.3763209804892540e-02</internalNodes>
          <leafValues>
            8.8309608399868011e-02 -9.1221660375595093e-01</leafValues></_>
        <_>
          <internalNodes>
            0 -1 1 8.5327755659818649e-03</internalNodes>
          <leafValues>
            -2.2152893245220184e-01 5.6052702665328979e-01</leafValues></_>
        <_>
          <internalNodes>
            0 -1 2 -7.3864897713065147e-03</internalNodes>
          <leafValues>
            6.1952501535415649e-01 -2.1685618162155151e-01</leafValues></_>
        <_>
          <internalNodes>
            0 -1 12 -1.3904703781008720e-02</internalNodes>
          <leafValues>
            -8.5096728801727295e-01 1.6927672922611237e-01</leafValues></_></weakClassifiers></_>
    <!-- stage 10 -->
    <_>
      <maxWeakCount>9</maxWeakCount>
      <stageThreshold>-1.6400460004806519e+00</stageThreshold>
      <weakClassifiers>
        <_>
          <internalNodes>
            0 -1 32 1.0972395539283752e-02</internalNodes>
          <leafValues>
            -7.7087032794952393e-01 8.6363637447357178e-01</leafValues></_>
        <_>
          <internalNodes>
            0 -1 70 -6.1342013068497181e-03</internalNodes>
          <leafValues>
            4.6009385585784912e-01 -4.8606193065643311e-01</leafValues></_>
        <_>
          <internalNodes>
            0 -1 56 -2.0246466156095266e-03</internalNodes>
          <leafValues>
            -7.9932701587677002e-01 1.8554925918579102e-01</leafValues></_>
        <_>
          <internalNodes>
            0 -1 40 5.0319908186793327e-03</internalNodes>
          <leafValues>
            -1.5880879759788513e-01 7.9664248228073120e-01</leafValues></_>
        <_>
          <internalNodes>
            0 -1 45 3.1322841532528400e-03</internalNodes>
          <leafValues>
            -2.5201788544654846e-01 5.1951348781585693e-01</leafValues></_>
        <_>
          <internalNodes>
            0 -1 49 -4.4660842977464199e-03</internalNodes>
          <leafValues>
            5.6521397829055786e-01 -2.4841302633285522e-01</leafValues></_>
        <_>
          <internalNodes>
            0 -1 42 -1.8322264775633812e-02</internalNodes>
          <leafValues>
            5.7349568605422974e-01 -1.7248281836509705e-01</leafValues></_>
        <_>
          <internalNodes>
            0 -1 53 4.7205332666635513e-03</internalNodes>
          <leafValues>
            -2.6199406385421753e-01 4.2254576086997986e-01</leafValues></_>
        <_>
          <internalNodes>
            0 -1 46 -2.6619181036949158e-02</internalNodes>
          <leafValues>
            5.0632381439208984e-01 -2.4647770822048187e-01</leafValues></_></weakClassifiers></_>
    <!-- stage 11 -->
    <_>
      <maxWeakCount>9</maxWeakCount>
      <stageThreshold>-1.3809112310409546e+00</stageThreshold>
      <weakClassifiers>
        <_>
          <internalNodes>
            0 -1 33 1.1598136276006699e-02</internalNodes>
          <leafValues>
            -7.7260518074035645e-01 6.2264150381088257e-01</leafValues></_>
        <_>
          <internalNodes>
            0 -1 36 1.3296371325850487e-03</internalNodes>
          <leafValues>
            -3.6946418881416321e-01 6.1360299587249756e-01</leafValues></_>
        <_>
          <internalNodes>
            0 -1 57 2.5564097450114787e-04</internalNodes>
          <leafValues>
            1.2991704046726227e-01 -8.5996663570404053e-01</leafValues></_>
        <_>
          <internalNodes>
            0 -1 79 -2.6982399867847562e-04</internalNodes>
          <leafValues>
            -6.3880628347396851e-01 1.3905268907546997e-01</leafValues></_>
        <_>
          <internalNodes>
            0 -1 17 -7.3998168110847473e-02</internalNodes>
          <leafValues>
            3.5727614164352417e-01 -3.0093741416931152e-01</leafValues></_>
        <_>
          <internalNodes>
            0 -1 54 -4.2648930102586746e-02</internalNodes>
          <leafValues>
            6.3058495521545410e-01 -1.6946263611316681e-01</leafValues></_>
        <_>
          <internalNodes>
            0 -1 24 2.8624100377783179e-04</internalNodes>
          <leafValues>
            1.8217198550701141e-01 -6.4963471889495850e-01</leafValues></_>
        <_>
          <internalNodes>
            0 -1 34 -7.4955848976969719e-03</internalNodes>
          <leafValues>
            -7.8790575265884399e-01 1.4520642161369324e-01</leafValues></_>
        <_>
          <internalNodes>
            0 -1 39 -1.1427688598632813e-01</internalNodes>
          <leafValues>
            5.9775120019912720e-01 -2.4514457583427429e-01</leafValues></_></weakClassifiers></_></stages>
  <features>
    <_>
      <rects>
        <_>
          0 0 2 16 -1.</_>
        <_>
          0 0 1 8 2.</_>
        <_>
          1 8 1 8 2.</_></rects>
      <tilted>0</tilted></_>
    <_>
      <rects>
        <_>
          0 0 2 22 -1.</_>
        <_>
          0 0 1 11 2.</_>
        <_>
          1 11 1 11 2.</_></rects>
      <tilted>0</tilted></_>
    <_>
      <rects>
        <_>
          0 0 2 24 -1.</_>
        <_>
          0 0 1 12 2.</_>
        <_>
          1 12 1 12 2.</_></rects>
      <tilted>0</tilted></_>
    <_>
      <rects>
        <_>
          0 0 2 23 -1.</_>
        <_>
          1 0 1 23 2.</_></rects>
      <tilted>0</tilted></_>
    <_>
      <rects>
        <_>
          0 0 3 24 -1.</_>
        <_>
          1 0 1 24 2.</_></rects>
      <tilted>0</tilted></_>
    <_>
      <rects>
        <_>
          0 0 18 1 -1.</_>
        <_>
          9 0 9 1 2.</_></rects>
      <tilted>0</tilted></_>
    <_>
      <rects>
        <_>
          0 0 24 1 -1.</_>
        <_>
          12 0 12 1 2.</_></rects>
      <tilted>0</tilted></_>
    <_>
      <rects>
        <_>
          0 2 10 2 -1.</_>
        <_>
          5 2 5 2 2.</_></rects>
      <tilted>0</tilted></_>
    <_>
      <rects>
        <_>
          0 3 24 21 -1.</_>
        <_>
          8 3 8 21 2.</_></rects>
      <tilted>0</tilted></_>
    <_>
      <rects>
        <_>
          0 3 18 19 -1.</_>
        <_>
          9 3 9 19 2.</_></rects>
      <tilted>0</tilted></_>
    <_>
      <rects>
        <_>
          0 4 12 15 -1.</_>
        <_>
          6 4 6 15 2.</_></rects>
      <tilted>0</tilted></_>
    <_>
      <rects>
        <_>
          0 4 24 18 -1.</_>
        <_>
          8 4 8 18 2.</_></rects>
      <tilted>0</tilted></_>
    <_>
      <rects>
        <_>
          0 6 1 18 -1.</_>
        <_>
          0 15 1 9 2.</_></rects>
      <tilted>0</tilted></_>
    <_>
      <rects>
        <_>
          0 6 12 11 -1.</_>
        <_>
          6 6 6 11 2.</_></rects>
      <tilted>0</tilted></_>
    <_>
      <rects>
        <_>
          0 6 12 12 -1.</_>
        <_>
          6 6 6 12 2.</_></rects>
      <tilted>0</tilted></_>
    <_>
      <rects>
        <_>
          0 6 14 13 -1.</_>
        <_>
          7 6 7 13 2.</_></rects>
      <tilted>0</tilted></_>
    <_>
      <rects>
        <_>
          0 6 24 10 -1.</_>
        <_>
          8 6 8 10 2.</_></rects>
      <tilted>0</tilted></_>
    <_>
      <rects>
        <_>
          0 8 18 9 -1.</_>
        <_>
          9 8 9 9 2.</_></rects>
      <tilted>0</tilted></_>
    <_>
      <rects>
        <_>
          0 9 1 4 -1.</_>
        <_>
          0 11 1 2 2.</_></rects>
      <tilted>0</tilted></_>
    <_>
      <rects>
        <_>
          0 10 1 2 -1.</_>
        <_>
          0 11 1 1 2.</_></rects>
      <tilted>0</tilted></_>
    <_>
      <rects>
        <_>
          0 10 1 12 -1.</_>
        <_>
          0 14 1 4 2.</_></rects>
      <tilted>0</tilted></_>
    <_>
      <rects>
        <_>
          0 10 24 5 -1.</_>
        <_>
          8 10 8 5 2.</_></rects>
      <tilted>0</tilted></_>
    <_>
      <rects>
        <_>
          0 10 24 6 -1.</_>
        <_>
          8 10 8 6 2.</_></rects>
      <tilted>0</tilted></_>
    <_>
      <rects>
        <_>
          0 10 24 12 -1.</_>
        <_>
          12 10 12 12 2.</_></rects>
      <tilted>0</tilted></_>
    <_>
      <rects>
        <_>
          0 11 4 2 -1.</_>
        <_>
          2 11 2 2 2.</_></rects>
      <tilted>0</tilted></_>
    <_>
      <rects>
        <_>
          0 12 24 1 -1.</_>
        <_>
          8 12 8 1 2.</_></rects>
      <tilted>0</tilted></_>
    <_>
      <rects>
        <_>
          0 12 23 12 -1.</_>
        <_>
          0 16 23 4 2.</_></rects>
      <tilted>0</tilted></_>
    <_>
      <rects>
        <_>
          0 13 1 4 -1.</_>
        <_>
          0 15 1 2 2.</_></rects>
      <tilted>0</tilted></_>
    <_>
      <rects>
        <_>
          0 13 24 1 -1.</_>
        <_>
          8 13 8 1 2.</_></rects>
      <tilted>0</tilted></_>
    <_>
      <rects>
        <_>
          0 16 3 1 -1.</_>
        <_>
          1 16 1 1 2.</_></rects>
      <tilted>0</tilted></_>
    <_>
      <rects>
        <_>
          0 23 22 1 -1.</_>
        <_>
          11 23 11 1 2.</_></rects>
      <tilted>0</tilted></_>
    <_>
      <rects>
        <_>
          1 0 5 2 -1.</_>
        <_>
          1 1 5 1 2.</_></rects>
      <tilted>0</tilted></_>
    <_>
      <rects>
        <_>
          1 0 6 2 -1.</_>
        <_>
          1 1 6 1 2.</_></rects>
      <tilted>0</tilted></_>
    <_>
      <rects>
        <_>
          1 0 7 2 -1.</_>
        <_>
          1 1 7 1 2.</_></rects>
      <tilted>0</tilted></_>
    <_>
      <rects>
        <_>
          1 0 18 1 -1.</_>
        <_>
          10 0 9 1 2.</_></rects>
      <tilted>0</tilted></_>
    <_>
      <rects>
        <_>
          1 0 20 2 -1.</_>
        <_>
          1 1 20 1 2.</_></rects>
      <tilted>0</tilted></_>
    <_>
      <rects>
        <_>
          1 3 21 1 -1.</_>
        <_>
          8 3 7 1 2.</_></rects>
      <tilted>0</tilted></_>
    <_>
      <rects>
        <_>
          1 6 23 9 -1.</_>
        <_>
          1 9 23 3 2.</_></rects>
      <tilted>0</tilted></_>
    <_>
      <rects>
        <_>
          2 0 16 2 -1.</_>
        <_>
          2 0 8 1 2.</_>
        <_>
          10 1 8 1 2.</_></rects>
      <tilted>0</tilted></_>
    <_>
      <rects>
        <_>
          2 2 5 22 -1.</_>
        <_>
          2 13 5 11 2.</_></rects>
      <tilted>0</tilted></_>
    <_>
      <rects>
        <_>
          2 2 21 2 -1.</_>
        <_>
          9 2 7 2 2.</_></rects>
      <tilted>0</tilted></_>
    <_>
      <rects>
        <_>
          2 10 12 1 -1.</_>
        <_>
          6 10 4 1 2.</_></rects>
      <tilted>0</tilted></_>
    <_>
      <rects>
        <_>
          3 3 1 20 -1.</_>
        <_>
          3 13 1 10 2.</_></rects>
      <tilted>0</tilted></_>
    <_>
      <rects>
        <_>
          3 6 19 18 -1.</_>
        <_>
          3 12 19 6 2.</_></rects>
      <tilted>0</tilted></_>
    <_>
      <rects>
        <_>
          4 0 18 1 -1.</_>
        <_>
          13 0 9 1 2.</_></rects>
      <tilted>0</tilted></_>
    <_>
      <rects>
        <_>
          4 0 20 2 -1.</_>
        <_>
          4 0 10 1 2.</_>
        <_>
          14 1 10 1 2.</_></rects>
      <tilted>0</tilted></_>
    <_>
      <rects>
        <_>
          4 6 8 12 -1.</_>
        <_>
          4 6 4 6 2.</_>
        <_>
          8 12 4 6 2.</_></rects>
      <tilted>0</tilted></_>
    <_>
      <rects>
        <_>
          5 0 15 22 -1.</_>
        <_>
          10 0 5 22 2.</_></rects>
      <tilted>0</tilted></_>
    <_>
      <rects>
        <_>
          5 0 14 10 -1.</_>
        <_>
          5 5 14 5 2.</_></rects>
      <tilted>0</tilted></_>
    <_>
      <rects>
        <_>
          6 0 18 2 -1.</_>
        <_>
          6 0 9 1 2.</_>
        <_>
          15 1 9 1 2.</_></rects>
      <tilted>0</tilted></_>
    <_>
      <rects>
        <_>
          6 0 10 6 -1.</_>
        <_>
          6 3 10 3 2.</_></rects>
      <tilted>0</tilted></_>
    <_>
      <rects>
        <_>
          6 0 14 8 -1.</_>
        <_>
          6 4 14 4 2.</_></rects>
      <tilted>0</tilted></_>
    <_>
      <rects>
        <_>
          7 6 9 15 -1.</_>
        <_>
          10 6 3 15 2.</_></rects>
      <tilted>0</tilted></_>
    <_>
      <rects>
        <_>
          7 9 4 6 -1.</_>
        <_>
          7 12 4 3 2.</_></rects>
      <tilted>0</tilted></_>
    <_>
      <rects>
        <_>
          7 16 11 8 -1.</_>
        <_>
          7 20 11 4 2.</_></rects>
      <tilted>0</tilted></_>
    <_>
      <rects>
        <_>
          7 20 12 4 -1.</_>
        <_>
          7 22 12 2 2.</_></rects>
      <tilted>0</tilted></_>
    <_>
      <rects>
        <_>
          8 0 10 1 -1.</_>
        <_>
          13 0 5 1 2.</_></rects>
      <tilted>0</tilted></_>
    <_>
      <rects>
        <_>
          9 0 2 1 -1.</_>
        <_>
          10 0 1 1 2.</_></rects>
      <tilted>0</tilted></_>
    <_>
      <rects>
        <_>
          10 0 6 6 -1.</_>
        <_>
          10 3 6 3 2.</_></rects>
      <tilted>0</tilted></_>
    <_>
      <rects>
        <_>
          10 1 14 10 -1.</_>
        <_>
          10 1 7 5 2.</_>
        <_>
          17 6 7 5 2.</_></rects>
      <tilted>0</tilted></_>
    <_>
      <rects>
        <_>
          10 8 13 9 -1.</_>
        <_>
          10 11 13 3 2.</_></rects>
      <tilted>0</tilted></_>
    <_>
      <rects>
        <_>
          12 5 12 15 -1.</_>
        <_>
          18 5 6 15 2.</_></rects>
      <tilted>0</tilted></_>
    <_>
      <rects>
        <_>
          12 7 12 11 -1.</_>
        <_>
          18 7 6 11 2.</_></rects>
      <tilted>0</tilted></_>
    <_>
      <rects>
        <_>
          12 19 6 4 -1.</_>
        <_>
          12 19 3 2 2.</_>
        <_>
          15 21 3 2 2.</_></rects>
      <tilted>0</tilted></_>
    <_>
      <rects>
        <_>
          13 0 2 1 -1.</_>
        <_>
          14 0 1 1 2.</_></rects>
      <tilted>0</tilted></_>
    <_>
      <rects>
        <_>
          14 9 10 10 -1.</_>
        <_>
          19 9 5 10 2.</_></rects>
      <tilted>0</tilted></_>
    <_>
      <rects>
        <_>
          15 5 7 6 -1.</_>
        <_>
          15 8 7 3 2.</_></rects>
      <tilted>0</tilted></_>
    <_>
      <rects>
        <_>
          16 7 8 14 -1.</_>
        <_>
          20 7 4 14 2.</_></rects>
      <tilted>0</tilted></_>
    <_>
      <rects>
        <_>
          20 2 1 18 -1.</_>
        <_>
          20 11 1 9 2.</_></rects>
      <tilted>0</tilted></_>
    <_>
      <rects>
        <_>
          20 6 2 12 -1.</_>
        <_>
          20 10 2 4 2.</_></rects>
      <tilted>0</tilted></_>
    <_>
      <rects>
        <_>
          22 0 2 22 -1.</_>
        <_>
          22 0 1 11 2.</_>
        <_>
          23 11 1 11 2.</_></rects>
      <tilted>0</tilted></_>
    <_>
      <rects>
        <_>
          22 0 2 24 -1.</_>
        <_>
          22 0 1 12 2.</_>
        <_>
          23 12 1 12 2.</_></rects>
      <tilted>0</tilted></_>
    <_>
      <rects>
        <_>
          22 0 2 24 -1.</_>
        <_>
          23 0 1 24 2.</_></rects>
      <tilted>0</tilted></_>
    <_>
      <rects>
        <_>
          22 11 2 4 -1.</_>
        <_>
          22 13 2 2 2.</_></rects>
      <tilted>0</tilted></_>
    <_>
      <rects>
        <_>
          22 12 2 1 -1.</_>
        <_>
          23 12 1 1 2.</_></rects>
      <tilted>0</tilted></_>
    <_>
      <rects>
        <_>
          22 13 2 2 -1.</_>
        <_>
          23 13 1 2 2.</_></rects>
      <tilted>0</tilted></_>
    <_>
      <rects>
        <_>
          22 14 2 2 -1.</_>
        <_>
          22 14 1 1 2.</_>
        <_>
          23 15 1 1 2.</_></rects>
      <tilted>0</tilted></_>
    <_>
      <rects>
        <_>
          22 14 1 4 -1.</_>
        <_>
          22 16 1 2 2.</_></rects>
      <tilted>0</tilted></_>
    <_>
      <rects>
        <_>
          23 3 1 6 -1.</_>
        <_>
          23 6 1 3 2.</_></rects>
      <tilted>0</tilted></_>
    <_>
      <rects>
        <_>
          23 9 1 4 -1.</_>
        <_>
          23 11 1 2 2.</_></rects>
      <tilted>0</tilted></_>
    <_>
      <rects>
        <_>
          23 11 1 4 -1.</_>
        <_>
          23 13 1 2 2.</_></rects>
      <tilted>0</tilted></_>
    <_>
      <rects>
        <_>
          23 12 1 2 -1.</_>
        <_>
          23 13 1 1 2.</_></rects>
      <tilted>0</tilted></_></features></cascade>
</opencv_storage>
