<?xml version="1.0"?>
<opencv_storage>
<cascade>
  <stageType>BOOST</stageType>
  <featureType>HAAR</featureType>
  <height>24</height>
  <width>24</width>
  <stageParams>
    <boostType>GAB</boostType>
    <minHitRate>9.9500000476837158e-01</minHitRate>
    <maxFalseAlarm>5.0000000000000000e-01</maxFalseAlarm>
    <weightTrimRate>9.4999999999999996e-01</weightTrimRate>
    <maxDepth>1</maxDepth>
    <maxWeakCount>100</maxWeakCount></stageParams>
  <featureParams>
    <maxCatCount>0</maxCatCount>
    <featSize>1</featSize>
    <mode>BASIC</mode></featureParams>
  <stageNum>7</stageNum>
  <stages>
    <!-- stage 0 -->
    <_>
      <maxWeakCount>2</maxWeakCount>
      <stageThreshold>-9.4822627305984497e-01</stageThreshold>
      <weakClassifiers>
        <_>
          <internalNodes>
            0 -1 28 -1.4754606410861015e-02</internalNodes>
          <leafValues>
            -9.7693920135498047e-01 4.1836735606193542e-01</leafValues></_>
        <_>
          <internalNodes>
            0 -1 32 -6.8649597465991974e-02</internalNodes>
          <leafValues>
            -9.9599844217300415e-01 2.8712946921586990e-02</leafValues></_></weakClassifiers></_>
    <!-- stage 1 -->
    <_>
      <maxWeakCount>6</maxWeakCount>
      <stageThreshold>-1.5540919303894043e+00</stageThreshold>
      <weakClassifiers>
        <_>
          <internalNodes>
            0 -1 7 -4.8550659418106079e-01</internalNodes>
          <leafValues>
            -8.8291746377944946e-01 6.4814811944961548e-01</leafValues></_>
        <_>
          <internalNodes>
            0 -1 23 -1.1704654991626740e-01</internalNodes>
          <leafValues>
            6.6662365198135376e-01 -6.4108419418334961e-01</leafValues></_>
        <_>
          <internalNodes>
            0 -1 16 5.7303157518617809e-05</internalNodes>
          <leafValues>
            -3.0875551700592041e-01 1.</leafValues></_>
        <_>
          <internalNodes>
            0 -1 8 -1.0471523553133011e-01</internalNodes>
          <leafValues>
            7.0631474256515503e-01 -3.5565918684005737e-01</leafValues></_>
        <_>
          <internalNodes>
            0 -1 12 -3.2713383552618325e-04</internalNodes>
          <leafValues>
            -9.5330035686492920e-01 3.0380669236183167e-01</leafValues></_>
        <_>
          <internalNodes>
            0 -1 12 2.5735754752531648e-04</internalNodes>
          <leafValues>
            3.3051773905754089e-01 -6.9410234689712524e-01</leafValues></_></weakClassifiers></_>
    <!-- stage 2 -->
    <_>
      <maxWeakCount>8</maxWeakCount>
      <stageThreshold>-1.6667827367782593e+00</stageThreshold>
      <weakClassifiers>
        <_>
          <internalNodes>
            0 -1 14 1.4556476380676031e-03</internalNodes>
          <leafValues>
            -8.4672206640243530e-01 1.</leafValues></_>
        <_>
          <internalNodes>
            0 -1 30 1.1771042644977570e-01</internalNodes>
          <leafValues>
            -7.9048418998718262e-01 4.9682116508483887e-01</leafValues></_>
        <_>
          <internalNodes>
            0 -1 27 -2.5135654211044312e-01</internalNodes>
          <leafValues>
            -4.0279462933540344e-01 6.3137835264205933e-01</leafValues></_>
        <_>
          <internalNodes>
            0 -1 5 5.3583462431561202e-05</internalNodes>
          <leafValues>
            -4.9831748008728027e-01 4.7747212648391724e-01</leafValues></_>
        <_>
          <internalNodes>
            0 -1 2 -7.6222261413931847e-03</internalNodes>
          <leafValues>
            7.0527601242065430e-01 -2.4256867170333862e-01</leafValues></_>
        <_>
          <internalNodes>
            0 -1 4 2.6389742270112038e-03</internalNodes>
          <leafValues>
            -3.7891831994056702e-01 5.7338345050811768e-01</leafValues></_>
        <_>
          <internalNodes>
            0 -1 25 2.4002255871891975e-02</internalNodes>
          <leafValues>
            -2.1177771687507629e-01 7.7261859178543091e-01</leafValues></_>
        <_>
          <internalNodes>
            0 -1 24 -9.2836003750562668e-03</internalNodes>
          <leafValues>
            7.5695568323135376e-01 -2.1380759775638580e-01</leafValues></_></weakClassifiers></_>
    <!-- stage 3 -->
    <_>
      <maxWeakCount>5</maxWeakCount>
      <stageThreshold>-1.6737068891525269e+00</stageThreshold>
      <weakClassifiers>
        <_>
          <internalNodes>
            0 -1 15 -2.2021466493606567e-01</internalNodes>
          <leafValues>
            -8.5873603820800781e-01 1.</leafValues></_>
        <_>
          <internalNodes>
            0 -1 31 9.1800868511199951e-02</internalNodes>
          <leafValues>
            -8.2235252857208252e-01 2.6654842495918274e-01</leafValues></_>
        <_>
          <internalNodes>
            0 -1 10 -1.0334511171095073e-04</internalNodes>
          <leafValues>
            -9.8335742950439453e-01 2.1711981296539307e-01</leafValues></_>
        <_>
          <internalNodes>
            0 -1 21 -2.3293527960777283e-01</internalNodes>
          <leafValues>
            -4.1218280792236328e-01 5.9458631277084351e-01</leafValues></_>
        <_>
          <internalNodes>
            0 -1 11 -4.6576780732721090e-05</internalNodes>
          <leafValues>
            -8.0432444810867310e-01 3.7336662411689758e-01</leafValues></_></weakClassifiers></_>
    <!-- stage 4 -->
    <_>
      <maxWeakCount>5</maxWeakCount>
      <stageThreshold>-1.8205585479736328e+00</stageThreshold>
      <weakClassifiers>
        <_>
          <internalNodes>
            0 -1 13 1.3133641332387924e-02</internalNodes>
          <leafValues>
            -8.4288352727890015e-01 9.1176468133926392e-01</leafValues></_>
        <_>
          <internalNodes>
            0 -1 6 -2.8363652527332306e-02</internalNodes>
          <leafValues>
            3.5269346833229065e-01 -7.1154683828353882e-01</leafValues></_>
        <_>
          <internalNodes>
            0 -1 10 9.3151567853055894e-05</internalNodes>
          <leafValues>
            3.2886341214179993e-01 -6.5495079755783081e-01</leafValues></_>
        <_>
          <internalNodes>
            0 -1 1 -1.1363031342625618e-02</internalNodes>
          <leafValues>
            -8.8823586702346802e-01 2.1044512093067169e-01</leafValues></_>
        <_>
          <internalNodes>
            0 -1 18 3.9038906106725335e-04</internalNodes>
          <leafValues>
            1.7837756872177124e-01 -9.2379742860794067e-01</leafValues></_></weakClassifiers></_>
    <!-- stage 5 -->
    <_>
      <maxWeakCount>8</maxWeakCount>
      <stageThreshold>-1.7864464521408081e+00</stageThreshold>
      <weakClassifiers>
        <_>
          <internalNodes>
            0 -1 17 4.2284885421395302e-03</internalNodes>
          <leafValues>
            -8.4427767992019653e-01 5.9523808956146240e-01</leafValues></_>
        <_>
          <internalNodes>
            0 -1 19 -9.5939509570598602e-02</internalNodes>
          <leafValues>
            6.8281888961791992e-01 -5.8283931016921997e-01</leafValues></_>
        <_>
          <internalNodes>
            0 -1 20 -8.0661311745643616e-02</internalNodes>
          <leafValues>
            6.8507093191146851e-01 -2.7708482742309570e-01</leafValues></_>
        <_>
          <internalNodes>
            0 -1 18 -6.5627146977931261e-04</internalNodes>
          <leafValues>
            -8.0956590175628662e-01 2.3236908018589020e-01</leafValues></_>
        <_>
          <internalNodes>
            0 -1 0 2.1143183112144470e-02</internalNodes>
          <leafValues>
            1.6600607335567474e-01 -1.</leafValues></_>
        <_>
          <internalNodes>
            0 -1 9 -7.4300956726074219e-01</internalNodes>
          <leafValues>
            4.5010742545127869e-01 -3.6978304386138916e-01</leafValues></_>
        <_>
          <internalNodes>
            0 -1 29 -2.8575081378221512e-02</internalNodes>
          <leafValues>
            7.0509004592895508e-01 -2.7691569924354553e-01</leafValues></_>
        <_>
          <internalNodes>
            0 -1 22 -4.2683384381234646e-03</internalNodes>
          <leafValues>
            -8.5239446163177490e-01 2.4585814774036407e-01</leafValues></_></weakClassifiers></_>
    <!-- stage 6 -->
    <_>
      <maxWeakCount>6</maxWeakCount>
      <stageThreshold>-1.5695264339447021e+00</stageThreshold>
      <weakClassifiers>
        <_>
          <internalNodes>
            0 -1 35 -2.3177638649940491e-03</internalNodes>
          <leafValues>
            -8.5116279125213623e-01 8.6666667461395264e-01</leafValues></_>
        <_>
          <internalNodes>
            0 -1 33 5.0841243937611580e-03</internalNodes>
          <leafValues>
            -6.9625872373580933e-01 5.7290947437286377e-01</leafValues></_>
        <_>
          <internalNodes>
            0 -1 26 9.7213356639258564e-05</internalNodes>
          <leafValues>
            3.1504228711128235e-01 -8.1290686130523682e-01</leafValues></_>
        <_>
          <internalNodes>
            0 -1 34 -1.5019842248875648e-04</internalNodes>
          <leafValues>
            -7.8429722785949707e-01 2.2469875216484070e-01</leafValues></_>
        <_>
          <internalNodes>
            0 -1 34 3.6319892387837172e-04</internalNodes>
          <leafValues>
            3.2055121660232544e-01 -7.6267933845520020e-01</leafValues></_>
        <_>
          <internalNodes>
            0 -1 3 -8.1444876268506050e-03</internalNodes>
          <leafValues>
            6.4709866046905518e-01 -3.8904693722724915e-01</leafValues></_></weakClassifiers></_></stages>
  <features>
    <_>
      <rects>
        <_>
          0 0 1 22 -1.</_>
        <_>
          0 11 1 11 2.</_></rects>
      <tilted>0</tilted></_>
    <_>
      <rects>
        <_>
          0 0 1 24 -1.</_>
        <_>
          0 12 1 12 2.</_></rects>
      <tilted>0</tilted></_>
    <_>
      <rects>
        <_>
          0 0 2 24 -1.</_>
        <_>
          0 0 1 12 2.</_>
        <_>
          1 12 1 12 2.</_></rects>
      <tilted>0</tilted></_>
    <_>
      <rects>
        <_>
          0 0 2 23 -1.</_>
        <_>
          1 0 1 23 2.</_></rects>
      <tilted>0</tilted></_>
    <_>
      <rects>
        <_>
          0 1 2 22 -1.</_>
        <_>
          0 1 1 11 2.</_>
        <_>
          1 12 1 11 2.</_></rects>
      <tilted>0</tilted></_>
    <_>
      <rects>
        <_>
          0 1 10 3 -1.</_>
        <_>
          5 1 5 3 2.</_></rects>
      <tilted>0</tilted></_>
    <_>
      <rects>
        <_>
          0 3 6 12 -1.</_>
        <_>
          3 3 3 12 2.</_></rects>
      <tilted>0</tilted></_>
    <_>
      <rects>
        <_>
          0 5 24 18 -1.</_>
        <_>
          0 11 24 6 2.</_></rects>
      <tilted>0</tilted></_>
    <_>
      <rects>
        <_>
          0 9 14 9 -1.</_>
        <_>
          7 9 7 9 2.</_></rects>
      <tilted>0</tilted></_>
    <_>
      <rects>
        <_>
          0 9 24 13 -1.</_>
        <_>
          8 9 8 13 2.</_></rects>
      <tilted>0</tilted></_>
    <_>
      <rects>
        <_>
          0 11 1 2 -1.</_>
        <_>
          0 12 1 1 2.</_></rects>
      <tilted>0</tilted></_>
    <_>
      <rects>
        <_>
          0 11 2 2 -1.</_>
        <_>
          0 11 1 1 2.</_>
        <_>
          1 12 1 1 2.</_></rects>
      <tilted>0</tilted></_>
    <_>
      <rects>
        <_>
          0 11 1 4 -1.</_>
        <_>
          0 13 1 2 2.</_></rects>
      <tilted>0</tilted></_>
    <_>
      <rects>
        <_>
          0 11 24 3 -1.</_>
        <_>
          8 11 8 3 2.</_></rects>
      <tilted>0</tilted></_>
    <_>
      <rects>
        <_>
          0 11 24 5 -1.</_>
        <_>
          8 11 8 5 2.</_></rects>
      <tilted>0</tilted></_>
    <_>
      <rects>
        <_>
          0 11 24 12 -1.</_>
        <_>
          0 15 24 4 2.</_></rects>
      <tilted>0</tilted></_>
    <_>
      <rects>
        <_>
          0 12 24 1 -1.</_>
        <_>
          8 12 8 1 2.</_></rects>
      <tilted>0</tilted></_>
    <_>
      <rects>
        <_>
          0 12 24 3 -1.</_>
        <_>
          8 12 8 3 2.</_></rects>
      <tilted>0</tilted></_>
    <_>
      <rects>
        <_>
          0 14 1 4 -1.</_>
        <_>
          0 16 1 2 2.</_></rects>
      <tilted>0</tilted></_>
    <_>
      <rects>
        <_>
          1 0 20 6 -1.</_>
        <_>
          1 3 20 3 2.</_></rects>
      <tilted>0</tilted></_>
    <_>
      <rects>
        <_>
          1 4 6 18 -1.</_>
        <_>
          1 13 6 9 2.</_></rects>
      <tilted>0</tilted></_>
    <_>
      <rects>
        <_>
          1 5 20 9 -1.</_>
        <_>
          1 8 20 3 2.</_></rects>
      <tilted>0</tilted></_>
    <_>
      <rects>
        <_>
          3 0 12 1 -1.</_>
        <_>
          9 0 6 1 2.</_></rects>
      <tilted>0</tilted></_>
    <_>
      <rects>
        <_>
          4 0 12 10 -1.</_>
        <_>
          4 5 12 5 2.</_></rects>
      <tilted>0</tilted></_>
    <_>
      <rects>
        <_>
          4 0 18 2 -1.</_>
        <_>
          4 1 18 1 2.</_></rects>
      <tilted>0</tilted></_>
    <_>
      <rects>
        <_>
          7 0 9 6 -1.</_>
        <_>
          7 3 9 3 2.</_></rects>
      <tilted>0</tilted></_>
    <_>
      <rects>
        <_>
          8 0 2 1 -1.</_>
        <_>
          9 0 1 1 2.</_></rects>
      <tilted>0</tilted></_>
    <_>
      <rects>
        <_>
          8 0 12 15 -1.</_>
        <_>
          12 0 4 15 2.</_></rects>
      <tilted>0</tilted></_>
    <_>
      <rects>
        <_>
          9 11 2 3 -1.</_>
        <_>
          9 12 2 1 2.</_></rects>
      <tilted>0</tilted></_>
    <_>
      <rects>
        <_>
          9 18 11 6 -1.</_>
        <_>
          9 21 11 3 2.</_></rects>
      <tilted>0</tilted></_>
    <_>
      <rects>
        <_>
          10 8 14 10 -1.</_>
        <_>
          17 8 7 10 2.</_></rects>
      <tilted>0</tilted></_>
    <_>
      <rects>
        <_>
          12 8 12 9 -1.</_>
        <_>
          18 8 6 9 2.</_></rects>
      <tilted>0</tilted></_>
    <_>
      <rects>
        <_>
          12 9 2 9 -1.</_>
        <_>
          12 12 2 3 2.</_></rects>
      <tilted>0</tilted></_>
    <_>
      <rects>
        <_>
          22 1 2 8 -1.</_>
        <_>
          23 1 1 8 2.</_></rects>
      <tilted>0</tilted></_>
    <_>
      <rects>
        <_>
          23 11 1 4 -1.</_>
        <_>
          23 13 1 2 2.</_></rects>
      <tilted>0</tilted></_>
    <_>
      <rects>
        <_>
          23 14 1 9 -1.</_>
        <_>
          23 17 1 3 2.</_></rects>
      <tilted>0</tilted></_></features></cascade>
</opencv_storage>
