<?xml version="1.0"?>
<opencv_storage>
<stage9>
  <maxWeakCount>10</maxWeakCount>
  <stageThreshold>-1.4304990768432617e+00</stageThreshold>
  <weakClassifiers>
    <_>
      <internalNodes>
        0 -1 124963 -1.6014429926872253e-01</internalNodes>
      <leafValues>
        2.8888890147209167e-01 -7.9259258508682251e-01</leafValues></_>
    <_>
      <internalNodes>
        0 -1 71450 -1.3881139457225800e-01</internalNodes>
      <leafValues>
        4.8329800367355347e-01 -4.2067545652389526e-01</leafValues></_>
    <_>
      <internalNodes>
        0 -1 84882 -9.4757154583930969e-02</internalNodes>
      <leafValues>
        1.3153912127017975e-01 -9.1992008686065674e-01</leafValues></_>
    <_>
      <internalNodes>
        0 -1 157979 -2.1916465833783150e-02</internalNodes>
      <leafValues>
        7.3601049184799194e-01 -1.6821824014186859e-01</leafValues></_>
    <_>
      <internalNodes>
        0 -1 10566 4.8389157745987177e-04</internalNodes>
      <leafValues>
        1.8092831969261169e-01 -7.6998728513717651e-01</leafValues></_>
    <_>
      <internalNodes>
        0 -1 161945 -2.4853507056832314e-04</internalNodes>
      <leafValues>
        -6.6964620351791382e-01 1.5405927598476410e-01</leafValues></_>
    <_>
      <internalNodes>
        0 -1 640 1.3763209804892540e-02</internalNodes>
      <leafValues>
        8.8309608399868011e-02 -9.1221660375595093e-01</leafValues></_>
    <_>
      <internalNodes>
        0 -1 51 8.5327755659818649e-03</internalNodes>
      <leafValues>
        -2.2152893245220184e-01 5.6052702665328979e-01</leafValues></_>
    <_>
      <internalNodes>
        0 -1 55 -7.3864897713065147e-03</internalNodes>
      <leafValues>
        6.1952501535415649e-01 -2.1685618162155151e-01</leafValues></_>
    <_>
      <internalNodes>
        0 -1 5871 -1.3904703781008720e-02</internalNodes>
      <leafValues>
        -8.5096728801727295e-01 1.6927672922611237e-01</leafValues></_></weakClassifiers></stage9>
</opencv_storage>
