<?xml version="1.0"?>
<opencv_storage>
<stage1>
  <maxWeakCount>6</maxWeakCount>
  <stageThreshold>-1.5080980062484741e+00</stageThreshold>
  <weakClassifiers>
    <_>
      <internalNodes>
        0 -1 6295 -4.6810783445835114e-02</internalNodes>
      <leafValues>
        -8.1586146354675293e-01 8.9041095972061157e-01</leafValues></_>
    <_>
      <internalNodes>
        0 -1 76 -8.1274202093482018e-03</internalNodes>
      <leafValues>
        5.1683378219604492e-01 -7.0166778564453125e-01</leafValues></_>
    <_>
      <internalNodes>
        0 -1 161912 2.1577370353043079e-04</internalNodes>
      <leafValues>
        3.3378413319587708e-01 -6.9689708948135376e-01</leafValues></_>
    <_>
      <internalNodes>
        0 -1 90144 -4.5567878987640142e-04</internalNodes>
      <leafValues>
        -6.7906916141510010e-01 2.4450521171092987e-01</leafValues></_>
    <_>
      <internalNodes>
        0 -1 50068 9.2979613691568375e-03</internalNodes>
      <leafValues>
        2.8423306345939636e-01 -8.9811074733734131e-01</leafValues></_>
    <_>
      <internalNodes>
        0 -1 8142 -4.1843560757115483e-04</internalNodes>
      <leafValues>
        -7.9175877571105957e-01 1.4143224060535431e-01</leafValues></_></weakClassifiers></stage1>
</opencv_storage>
