<?xml version="1.0"?>
<opencv_storage>
<stage3>
  <maxWeakCount>5</maxWeakCount>
  <stageThreshold>-1.6737068891525269e+00</stageThreshold>
  <weakClassifiers>
    <_>
      <internalNodes>
        0 -1 10005 -2.2021466493606567e-01</internalNodes>
      <leafValues>
        -8.5873603820800781e-01 1.</leafValues></_>
    <_>
      <internalNodes>
        0 -1 125326 9.1800868511199951e-02</internalNodes>
      <leafValues>
        -8.2235252857208252e-01 2.6654842495918274e-01</leafValues></_>
    <_>
      <internalNodes>
        0 -1 9437 -1.0334511171095073e-04</internalNodes>
      <leafValues>
        -9.8335742950439453e-01 2.1711981296539307e-01</leafValues></_>
    <_>
      <internalNodes>
        0 -1 18744 -2.3293527960777283e-01</internalNodes>
      <leafValues>
        -4.1218280792236328e-01 5.9458631277084351e-01</leafValues></_>
    <_>
      <internalNodes>
        0 -1 9440 -4.6576780732721090e-05</internalNodes>
      <leafValues>
        -8.0432444810867310e-01 3.7336662411689758e-01</leafValues></_></weakClassifiers></stage3>
</opencv_storage>
